{"W1": [[-0.05437767878174782, -0.050566889345645905, -0.0032373699359595776, 0.06923812627792358], [-0.01640070043504238, 0.04075685143470764, -0.0032249432988464832, 0.02207103744149208], [-0.036526888608932495, -0.05135191231966019, -0.016713855788111687, 0.009268534369766712], [-0.06785885989665985, -0.05469128489494324, -0.01167522557079792, -0.01887124590575695], [0.003634669817984104, -0.03249996900558472, -0.09848777949810028, 0.024463681504130363]], "W2": [[0.05927654355764389, -0.07002318650484085, -0.13288411498069763, -0.012318599037826061, 0.1026826947927475], [0.10237719118595123, 0.02632605843245983, 0.02876080386340618, 0.04763989895582199, 0.006660348270088434], [0.05289603769779205, 0.0350753515958786, 0.03255841135978699, -0.03971146047115326, -0.004648569505661726]], "b1": [[-0.028452934697270393], [0.019116681069135666], [-0.014314781874418259], [-0.06154573708772659], [0.025339294224977493]], "b2": [[-0.045689910650253296], [0.04969722777605057], [-0.023048970848321915]]}