{"W1": [[0.018823225051164627, -0.02816576324403286, -0.0437387079000473, -0.04066189378499985], [-0.08246568590402603, -0.03254779428243637, -0.030845878645777702, 0.022086456418037415], [0.06358910351991653, -0.1428198665380478, 0.0001353997940896079, -0.07091834396123886], [0.048386700451374054, -0.0724029392004013, 0.01920141465961933, -0.05405890569090843], [0.01676142029464245, -0.03170814737677574, -0.05892523005604744, 0.033801548182964325]], "W2": [[-0.01517665944993496, -0.020875556394457817, -0.020998822525143623, -0.07015299797058105, -0.026875076815485954], [-0.03699112311005592, 0.02375137060880661, 0.08410502225160599, -0.07151880860328674, -0.03910808265209198], [0.027723336592316628, -0.0719960629940033, 0.028411343693733215, -0.0158050749450922, 0.04172632470726967]], "b1": [[-0.007848662324249744], [0.08038818836212158], [0.06885933130979538], [-0.03647160157561302], [-0.009064276702702045]], "b2": [[0.030618270859122276], [0.014504712074995041], [0.013964463025331497]]}